{"learner":{"attributes":{"scikit_learn":"{\"_estimator_type\": \"classifier\"}"},"feature_names":["num__Age_continuous","num__BMI_continuous","num__blood_continuous","num__exposure.RC_continuous","cat__Gender_discrete_Female","cat__Gender_discrete_Male"],"feature_types":["float","float","float","float","float","float"],"gradient_booster":{"model":{"cats":{"enc":[],"feature_segments":[],"sorted_idx":[]},"gbtree_model_param":{"num_parallel_tree":"1","num_trees":"50"},"iteration_indptr":[0,1,2,3,4,5,6,7,8,9,10,11,12,13,14,15,16,17,18,19,20,21,22,23,24,25,26,27,28,29,30,31,32,33,34,35,36,37,38,39,40,41,42,43,44,45,46,47,48,49,50],"tree_info":[0,0,0,0,0,0,0,0,0,0,0,0,0,0,0,0,0,0,0,0,0,0,0,0,0,0,0,0,0,0,0,0,0,0,0,0,0,0,0,0,0,0,0,0,0,0,0,0,0,0],"trees":[{"base_weights":[-0E0,-1.3567468E0,5.8023715E-1,-1.6386293E0,-9.285714E-1,-5.1282052E-2,8.57793E-1,-1.659306E-2,-0E0,-1.2E-2,-3.5897435E-3,-1.9540228E-3,1.0434782E-2,6.017192E-3,1.0187265E-2],"categories":[],"categories_nodes":[],"categories_segments":[],"categories_sizes":[],"default_left":[0,0,0,0,0,0,0,0,0,0,0,0,0,0,0],"id":0,"left_children":[1,3,5,7,9,11,13,-1,-1,-1,-1,-1,-1,-1,-1],"loss_changes":[3.5543655E2,1.4802444E1,5.547686E1,2.7189941E0,8.227108E0,1.5587168E1,8.4431E0,0E0,0E0,0E0,0E0,0E0,0E0,0E0,0E0],"parents":[2147483647,0,0,1,1,2,2,3,3,4,4,5,5,6,6],"right_children":[2,4,6,8,10,12,14,-1,-1,-1,-1,-1,-1,-1,-1],"split_conditions":[4.4615385E-1,2.769231E-1,6.4615387E-1,8.125318E-1,3.528421E-1,4.7789472E-1,7.846154E-1,-1.659306E-2,-0E0,-1.2E-2,-3.5897435E-3,-1.9540228E-3,1.0434782E-2,6.017192E-3,1.0187265E-2],"split_indices":[0,0,0,3,1,1,0,0,0,0,0,0,0,0,0],"split_type":[0,0,0,0,0,0,0,0,0,0,0,0,0,0,0],"sum_hessian":[4.495E2,1.3425E2,3.1525E2,7.925E1,5.5E1,9.65E1,2.1875E2,7.825E1,1E0,3.65E1,1.85E1,8.6E1,1.05E1,8.625E1,1.325E2],"tree_param":{"num_deleted":"0","num_feature":"6","num_nodes":"15","size_leaf_vector":"1"}},{"base_weights":[-1.666048E-5,-1.3434846E0,5.7452124E-1,-1.622559E0,-9.195867E-1,-5.0682373E-2,8.493051E-1,-1.6430343E-2,-0E0,-1.1883617E-2,-3.5556965E-3,-1.9347086E-3,1.0339767E-2,5.186762E-3,9.7023975E-3],"categories":[],"categories_nodes":[],"categories_segments":[],"categories_sizes":[],"default_left":[0,0,0,0,0,0,0,0,0,0,0,0,0,0,0],"id":1,"left_children":[1,3,5,7,9,11,13,-1,-1,-1,-1,-1,-1,-1,-1],"loss_changes":[3.4849197E2,1.450708E1,5.437269E1,2.665924E0,8.066494E0,1.5300479E1,8.283203E0,0E0,0E0,0E0,0E0,0E0,0E0,0E0,0E0],"parents":[2147483647,0,0,1,1,2,2,3,3,4,4,5,5,6,6],"right_children":[2,4,6,8,10,12,14,-1,-1,-1,-1,-1,-1,-1,-1],"split_conditions":[4.4615385E-1,2.769231E-1,6.4615387E-1,8.125318E-1,3.528421E-1,4.7789472E-1,7.3846155E-1,-1.6430343E-2,-0E0,-1.1883617E-2,-3.5556965E-3,-1.9347086E-3,1.0339767E-2,5.186762E-3,9.7023975E-3],"split_indices":[0,0,0,3,1,1,0,0,0,0,0,0,0,0,0],"split_type":[0,0,0,0,0,0,0,0,0,0,0,0,0,0,0],"sum_hessian":[4.4948865E2,1.3424324E2,3.1524542E2,7.924461E1,5.4998627E1,9.649963E1,2.1874579E2,7.824461E1,1E0,3.6498688E1,1.849994E1,8.5999916E1,1.0499714E1,5.999946E1,1.5874632E2],"tree_param":{"num_deleted":"0","num_feature":"6","num_nodes":"15","size_leaf_vector":"1"}},{"base_weights":[-3.5739486E-5,-1.3304834E0,5.688741E-1,-1.6068591E0,-9.107331E-1,-5.0090037E-2,8.4092754E-1,-1.6271403E-2,-0E0,-1.1769177E-2,-3.521996E-3,-1.9155911E-3,1.0246117E-2,5.89309E-3,9.990848E-3],"categories":[],"categories_nodes":[],"categories_segments":[],"categories_sizes":[],"default_left":[0,0,0,0,0,0,0,0,0,0,0,0,0,0,0],"id":2,"left_children":[1,3,5,7,9,11,13,-1,-1,-1,-1,-1,-1,-1,-1],"loss_changes":[3.4170856E2,1.4223648E1,5.3292847E1,2.6145935E0,7.91037E0,1.5019665E1,8.155594E0,0E0,0E0,0E0,0E0,0E0,0E0,0E0,0E0],"parents":[2147483647,0,0,1,1,2,2,3,3,4,4,5,5,6,6],"right_children":[2,4,6,8,10,12,14,-1,-1,-1,-1,-1,-1,-1,-1],"split_conditions":[4.4615385E-1,2.769231E-1,6.4615387E-1,8.125318E-1,3.528421E-1,4.7789472E-1,7.846154E-1,-1.6271403E-2,-0E0,-1.1769177E-2,-3.521996E-3,-1.9155911E-3,1.0246117E-2,5.89309E-3,9.990848E-3],"split_indices":[0,0,0,3,1,1,0,0,0,0,0,0,0,0,0],"split_type":[0,0,0,0,0,0,0,0,0,0,0,0,0,0,0],"sum_hessian":[4.4945517E2,1.3422322E2,3.1523193E2,7.922867E1,5.4994556E1,9.649854E1,2.187334E2,7.822867E1,1E0,3.6494793E1,1.8499763E1,8.599968E1,1.0498867E1,8.62465E1,1.324869E2],"tree_param":{"num_deleted":"0","num_feature":"6","num_nodes":"15","size_leaf_vector":"1"}},{"base_weights":[-5.208021E-5,-1.317734E0,5.633017E-1,-1.5915151E0,-9.020072E-1,-4.9504437E-2,8.326681E-1,-1.6116092E-2,-0E0,-1.1656622E-2,-3.4886347E-3,-1.8966629E-3,1.0153802E-2,5.0781015E-3,9.515171E-3],"categories":[],"categories_nodes":[],"categories_segments":[],"categories_sizes":[],"default_left":[0,0,0,0,0,0,0,0,0,0,0,0,0,0,0],"id":3,"left_children":[1,3,5,7,9,11,13,-1,-1,-1,-1,-1,-1,-1,-1],"loss_changes":[3.3508374E2,1.3951569E1,5.2237778E1,2.5648956E0,7.758564E0,1.4744578E1,7.9997253E0,0E0,0E0,0E0,0E0,0E0,0E0,0E0,0E0],"parents":[2147483647,0,0,1,1,2,2,3,3,4,4,5,5,6,6],"right_children":[2,4,6,8,10,12,14,-1,-1,-1,-1,-1,-1,-1,-1],"split_conditions":[4.4615385E-1,2.769231E-1,6.4615387E-1,8.125318E-1,3.528421E-1,4.7789472E-1,7.3846155E-1,-1.6116092E-2,-0E0,-1.1656622E-2,-3.4886347E-3,-1.8966629E-3,1.0153802E-2,5.0781015E-3,9.515171E-3],"split_indices":[0,0,0,3,1,1,0,0,0,0,0,0,0,0,0],"split_type":[0,0,0,0,0,0,0,0,0,0,0,0,0,0,0],"sum_hessian":[4.494001E2,1.3419037E2,3.1520975E2,7.9202484E1,5.4987877E1,9.649675E1,2.1871298E2,7.8202484E1,1E0,3.6488403E1,1.8499474E1,8.5999275E1,1.0497475E1,5.9995617E1,1.5871736E2],"tree_param":{"num_deleted":"0","num_feature":"6","num_nodes":"15","size_leaf_vector":"1"}},{"base_weights":[-7.06201E-5,-1.3052279E0,5.5779535E-1,-1.5765142E0,-8.9340544E-1,-4.892587E-2,8.24514E-1,-1.5964283E-2,-0E0,-1.1545892E-2,-3.4556084E-3,-1.8779264E-3,1.0062788E-2,5.771968E-3,9.800083E-3],"categories":[],"categories_nodes":[],"categories_segments":[],"categories_sizes":[],"default_left":[0,0,0,0,0,0,0,0,0,0,0,0,0,0,0],"id":4,"left_children":[1,3,5,7,9,11,13,-1,-1,-1,-1,-1,-1,-1,-1],"loss_changes":[3.2861035E2,1.369017E1,5.1205673E1,2.5168E0,7.610901E0,1.4475088E1,7.8826447E0,0E0,0E0,0E0,0E0,0E0,0E0,0E0,0E0],"parents":[2147483647,0,0,1,1,2,2,3,3,4,4,5,5,6,6],"right_children":[2,4,6,8,10,12,14,-1,-1,-1,-1,-1,-1,-1,-1],"split_conditions":[4.4615385E-1,2.769231E-1,6.4615387E-1,8.125318E-1,3.528421E-1,4.7789472E-1,7.846154E-1,-1.5964283E-2,-0E0,-1.1545892E-2,-3.4556084E-3,-1.8779264E-3,1.0062788E-2,5.771968E-3,9.800083E-3],"split_indices":[0,0,0,3,1,1,0,0,0,0,0,0,0,0,0],"split_type":[0,0,0,0,0,0,0,0,0,0,0,0,0,0,0],"sum_hessian":[4.4932416E2,1.3414502E2,3.1517914E2,7.916637E1,5.497866E1,9.649428E1,2.1868488E2,7.816637E1,1E0,3.6479588E1,1.8499073E1,8.5998726E1,1.0495551E1,8.623627E1,1.3244861E2],"tree_param":{"num_deleted":"0","num_feature":"6","num_nodes":"15","size_leaf_vector":"1"}},{"base_weights":[-8.65492E-5,-1.2929575E0,5.523608E-1,-1.5618443E0,-8.849253E-1,-4.835414E-2,8.164729E-1,-1.5815843E-2,-0E0,-1.1436941E-2,-3.422914E-3,-1.8593784E-3,9.973039E-3,5.7153665E-3,9.704916E-3],"categories":[],"categories_nodes":[],"categories_segments":[],"categories_sizes":[],"default_left":[0,0,0,0,0,0,0,0,0,0,0,0,0,0,0],"id":5,"left_children":[1,3,5,7,9,11,13,-1,-1,-1,-1,-1,-1,-1,-1],"loss_changes":[3.2228638E2,1.343895E1,5.0197083E1,2.4701996E0,7.467224E0,1.4211049E1,7.731552E0,0E0,0E0,0E0,0E0,0E0,0E0,0E0,0E0],"parents":[2147483647,0,0,1,1,2,2,3,3,4,4,5,5,6,6],"right_children":[2,4,6,8,10,12,14,-1,-1,-1,-1,-1,-1,-1,-1],"split_conditions":[4.4615385E-1,2.769231E-1,6.4615387E-1,8.125318E-1,3.528421E-1,4.7789472E-1,7.846154E-1,-1.5815843E-2,-0E0,-1.1436941E-2,-3.422914E-3,-1.8593784E-3,9.973039E-3,5.7153665E-3,9.704916E-3],"split_indices":[0,0,0,3,1,1,0,0,0,0,0,0,0,0,0],"split_type":[0,0,0,0,0,0,0,0,0,0,0,0,0,0,0],"sum_hessian":[4.4922794E2,1.3408759E2,3.1514035E2,7.91206E1,5.496698E1,9.6491135E1,2.1864922E2,7.81206E1,1E0,3.6468414E1,1.8498566E1,8.5998024E1,1.0493112E1,8.6229355E1,1.3241986E2],"tree_param":{"num_deleted":"0","num_feature":"6","num_nodes":"15","size_leaf_vector":"1"}},{"base_weights":[-1.02217324E-4,-1.2809145E0,5.469932E-1,-1.5474927E0,-8.765633E-1,-4.7789037E-2,8.085375E-1,-1.567065E-2,-0E0,-1.1329714E-2,-3.3905478E-3,-1.8410159E-3,9.88453E-3,4.9161944E-3,9.245486E-3],"categories":[],"categories_nodes":[],"categories_segments":[],"categories_sizes":[],"default_left":[0,0,0,0,0,0,0,0,0,0,0,0,0,0,0],"id":6,"left_children":[1,3,5,7,9,11,13,-1,-1,-1,-1,-1,-1,-1,-1],"loss_changes":[3.161061E2,1.3197296E1,4.9210747E1,2.4250336E0,7.3273697E0,1.3952337E1,7.6195374E0,0E0,0E0,0E0,0E0,0E0,0E0,0E0,0E0],"parents":[2147483647,0,0,1,1,2,2,3,3,4,4,5,5,6,6],"right_children":[2,4,6,8,10,12,14,-1,-1,-1,-1,-1,-1,-1,-1],"split_conditions":[4.4615385E-1,2.769231E-1,6.4615387E-1,8.125318E-1,3.528421E-1,4.7789472E-1,7.3846155E-1,-1.567065E-2,-0E0,-1.1329714E-2,-3.3905478E-3,-1.8410159E-3,9.88453E-3,4.9161944E-3,9.245486E-3],"split_indices":[0,0,0,3,1,1,0,0,0,0,0,0,0,0,0],"split_type":[0,0,0,0,0,0,0,0,0,0,0,0,0,0,0],"sum_hessian":[4.49112E2,1.340184E2,3.150936E2,7.9065506E1,5.4952904E1,9.648736E1,2.1860623E2,7.8065506E1,1E0,3.6454952E1,1.8497952E1,8.5997185E1,1.0490171E1,5.9983006E1,1.5862323E2],"tree_param":{"num_deleted":"0","num_feature":"6","num_nodes":"15","size_leaf_vector":"1"}},{"base_weights":[-1.20139994E-4,-1.2690918E0,5.4168737E-1,-1.5334485E0,-8.6831653E-1,-4.723068E-2,8.0069965E-1,-1.55285895E-2,-0E0,-1.1224161E-2,-3.3585036E-3,-1.8228386E-3,9.797222E-3,5.5985004E-3,9.522134E-3],"categories":[],"categories_nodes":[],"categories_segments":[],"categories_sizes":[],"default_left":[0,0,0,0,0,0,0,0,0,0,0,0,0,0,0],"id":7,"left_children":[1,3,5,7,9,11,13,-1,-1,-1,-1,-1,-1,-1,-1],"loss_changes":[3.1006403E2,1.2964844E1,4.8245506E1,2.3812256E0,7.1912155E0,1.3698816E1,7.478958E0,0E0,0E0,0E0,0E0,0E0,0E0,0E0,0E0],"parents":[2147483647,0,0,1,1,2,2,3,3,4,4,5,5,6,6],"right_children":[2,4,6,8,10,12,14,-1,-1,-1,-1,-1,-1,-1,-1],"split_conditions":[4.4615385E-1,2.769231E-1,6.4615387E-1,8.125318E-1,3.528421E-1,4.7789472E-1,7.846154E-1,-1.55285895E-2,-0E0,-1.1224161E-2,-3.3585036E-3,-1.8228386E-3,9.797222E-3,5.5985004E-3,9.522134E-3],"split_indices":[0,0,0,3,1,1,0,0,0,0,0,0,0,0,0],"split_type":[0,0,0,0,0,0,0,0,0,0,0,0,0,0,0],"sum_hessian":[4.4897714E2,1.3393787E2,3.1503928E2,7.900134E1,5.493652E1,9.648295E1,2.1855632E2,7.800134E1,1E0,3.6439278E1,1.8497242E1,8.59962E1,1.0486743E1,8.621004E1,1.3234628E2],"tree_param":{"num_deleted":"0","num_feature":"6","num_nodes":"15","size_leaf_vector":"1"}},{"base_weights":[-1.3544223E-4,-1.2574822E0,5.3644943E-1,-1.5197003E0,-8.601824E-1,-4.6678662E-2,7.929679E-1,-1.5389543E-2,-0E0,-1.1120238E-2,-3.3267804E-3,-1.8048414E-3,9.711094E-3,4.813753E-3,9.070857E-3],"categories":[],"categories_nodes":[],"categories_segments":[],"categories_sizes":[],"default_left":[0,0,0,0,0,0,0,0,0,0,0,0,0,0,0],"id":8,"left_children":[1,3,5,7,9,11,13,-1,-1,-1,-1,-1,-1,-1,-1],"loss_changes":[3.041586E2,1.2740952E1,4.7301888E1,2.338745E0,7.0586014E0,1.3450365E1,7.3683624E0,0E0,0E0,0E0,0E0,0E0,0E0,0E0,0E0],"parents":[2147483647,0,0,1,1,2,2,3,3,4,4,5,5,6,6],"right_children":[2,4,6,8,10,12,14,-1,-1,-1,-1,-1,-1,-1,-1],"split_conditions":[4.4615385E-1,2.769231E-1,6.4615387E-1,8.125318E-1,3.528421E-1,4.7789472E-1,7.3846155E-1,-1.5389543E-2,-0E0,-1.1120238E-2,-3.3267804E-3,-1.8048414E-3,9.711094E-3,4.813753E-3,9.070857E-3],"split_indices":[0,0,0,3,1,1,0,0,0,0,0,0,0,0,0],"split_type":[0,0,0,0,0,0,0,0,0,0,0,0,0,0,0],"sum_hessian":[4.488237E2,1.338463E2,3.149774E2,7.892842E1,5.4917885E1,9.6477936E1,2.1849947E2,7.792842E1,1E0,3.642145E1,1.8496431E1,8.5995094E1,1.04828415E1,5.9970734E1,1.5852873E2],"tree_param":{"num_deleted":"0","num_feature":"6","num_nodes":"15","size_leaf_vector":"1"}},{"base_weights":[-1.5300057E-4,-1.246079E0,5.3127086E-1,-1.5062382E0,-8.5215825E-1,-4.6133168E-2,7.853296E-1,-1.5253414E-2,-0E0,-1.1017898E-2,-3.2953732E-3,-1.7870256E-3,9.626116E-3,5.4843575E-3,9.344335E-3],"categories":[],"categories_nodes":[],"categories_segments":[],"categories_sizes":[],"default_left":[0,0,0,0,0,0,0,0,0,0,0,0,0,0,0],"id":9,"left_children":[1,3,5,7,9,11,13,-1,-1,-1,-1,-1,-1,-1,-1],"loss_changes":[2.9838354E2,1.2525299E1,4.6378258E1,2.2975159E0,6.929405E0,1.3206869E1,7.2384033E0,0E0,0E0,0E0,0E0,0E0,0E0,0E0,0E0],"parents":[2147483647,0,0,1,1,2,2,3,3,4,4,5,5,6,6],"right_children":[2,4,6,8,10,12,14,-1,-1,-1,-1,-1,-1,-1,-1],"split_conditions":[4.4615385E-1,2.769231E-1,6.4615387E-1,8.125318E-1,3.528421E-1,4.7789472E-1,7.846154E-1,-1.5253414E-2,-0E0,-1.1017898E-2,-3.2953732E-3,-1.7870256E-3,9.626116E-3,5.4843575E-3,9.344335E-3],"split_indices":[0,0,0,3,1,1,0,0,0,0,0,0,0,0,0],"split_type":[0,0,0,0,0,0,0,0,0,0,0,0,0,0,0],"sum_hessian":[4.4865247E2,1.3374405E2,3.1490842E2,7.8846985E1,5.4897068E1,9.647234E1,2.1843608E2,7.7846985E1,1E0,3.6401546E1,1.8495523E1,8.599386E1,1.0478481E1,8.618499E1,1.3225108E2],"tree_param":{"num_deleted":"0","num_feature":"6","num_nodes":"15","size_leaf_vector":"1"}},{"base_weights":[-1.6799122E-4,-1.2348752E0,5.2615756E-1,-1.4930519E0,-8.442411E-1,-4.5594204E-2,7.7779293E-1,-1.5120095E-2,-0E0,-1.0917097E-2,-3.2642777E-3,-1.76939E-3,9.542254E-3,4.7136503E-3,8.9008575E-3],"categories":[],"categories_nodes":[],"categories_segments":[],"categories_sizes":[],"default_left":[0,0,0,0,0,0,0,0,0,0,0,0,0,0,0],"id":10,"left_children":[1,3,5,7,9,11,13,-1,-1,-1,-1,-1,-1,-1,-1],"loss_changes":[2.9273734E2,1.2317459E1,4.5475197E1,2.2575073E0,6.8034935E0,1.2968203E1,7.128769E0,0E0,0E0,0E0,0E0,0E0,0E0,0E0,0E0],"parents":[2147483647,0,0,1,1,2,2,3,3,4,4,5,5,6,6],"right_children":[2,4,6,8,10,12,14,-1,-1,-1,-1,-1,-1,-1,-1],"split_conditions":[4.4615385E-1,2.769231E-1,6.4615387E-1,8.125318E-1,3.528421E-1,4.7789472E-1,7.3846155E-1,-1.5120095E-2,-0E0,-1.0917097E-2,-3.2642777E-3,-1.76939E-3,9.542254E-3,4.7136503E-3,8.9008575E-3],"split_indices":[0,0,0,3,1,1,0,0,0,0,0,0,0,0,0],"split_type":[0,0,0,0,0,0,0,0,0,0,0,0,0,0,0],"sum_hessian":[4.4846378E2,1.3363147E2,3.148323E2,7.875732E1,5.4874146E1,9.6466156E1,2.1836617E2,7.775732E1,1E0,3.637962E1,1.8494526E1,8.5992485E1,1.0473674E1,5.995551E1,1.5841064E2],"tree_param":{"num_deleted":"0","num_feature":"6","num_nodes":"15","size_leaf_vector":"1"}},{"base_weights":[-1.8511775E-4,-1.2238652E0,5.2110136E-1,-1.4801322E0,-8.364285E-1,-4.5061313E-2,7.7034557E-1,-1.4989492E-2,-0E0,-1.0817792E-2,-3.2334896E-3,-1.7519287E-3,9.459491E-3,5.372849E-3,9.171279E-3],"categories":[],"categories_nodes":[],"categories_segments":[],"categories_sizes":[],"default_left":[0,0,0,0,0,0,0,0,0,0,0,0,0,0,0],"id":11,"left_children":[1,3,5,7,9,11,13,-1,-1,-1,-1,-1,-1,-1,-1],"loss_changes":[2.872142E2,1.2116989E1,4.4591003E1,2.2186432E0,6.680748E0,1.27342615E1,7.008972E0,0E0,0E0,0E0,0E0,0E0,0E0,0E0,0E0],"parents":[2147483647,0,0,1,1,2,2,3,3,4,4,5,5,6,6],"right_children":[2,4,6,8,10,12,14,-1,-1,-1,-1,-1,-1,-1,-1],"split_conditions":[4.4615385E-1,2.769231E-1,6.4615387E-1,8.125318E-1,3.528421E-1,4.7789472E-1,7.846154E-1,-1.4989492E-2,-0E0,-1.0817792E-2,-3.2334896E-3,-1.7519287E-3,9.459491E-3,5.372849E-3,9.171279E-3],"split_indices":[0,0,0,3,1,1,0,0,0,0,0,0,0,0,0],"split_type":[0,0,0,0,0,0,0,0,0,0,0,0,0,0,0],"sum_hessian":[4.4825842E2,1.3350885E2,3.1474957E2,7.865967E1,5.484918E1,9.6459435E1,2.1829013E2,7.765967E1,1E0,3.635574E1,1.8493439E1,8.5991E1,1.0468432E1,8.6154564E1,1.3213557E2],"tree_param":{"num_deleted":"0","num_feature":"6","num_nodes":"15","size_leaf_vector":"1"}},{"base_weights":[-1.9976537E-4,-1.2130426E0,5.161081E-1,-1.46747E0,-8.287183E-1,-4.4534765E-2,7.629958E-1,-1.4861509E-2,-0E0,-1.0719943E-2,-3.203009E-3,-1.7346443E-3,9.377799E-3,4.6158154E-3,8.735275E-3],"categories":[],"categories_nodes":[],"categories_segments":[],"categories_sizes":[],"default_left":[0,0,0,0,0,0,0,0,0,0,0,0,0,0,0],"id":12,"left_children":[1,3,5,7,9,11,13,-1,-1,-1,-1,-1,-1,-1,-1],"loss_changes":[2.8181296E2,1.1923553E1,4.372635E1,2.1808777E0,6.561054E0,1.250494E1,6.899887E0,0E0,0E0,0E0,0E0,0E0,0E0,0E0,0E0],"parents":[2147483647,0,0,1,1,2,2,3,3,4,4,5,5,6,6],"right_children":[2,4,6,8,10,12,14,-1,-1,-1,-1,-1,-1,-1,-1],"split_conditions":[4.4615385E-1,2.769231E-1,6.4615387E-1,8.125318E-1,3.528421E-1,4.7789472E-1,7.3846155E-1,-1.4861509E-2,-0E0,-1.0719943E-2,-3.203009E-3,-1.7346443E-3,9.377799E-3,4.6158154E-3,8.735275E-3],"split_indices":[0,0,0,3,1,1,0,0,0,0,0,0,0,0,0],"split_type":[0,0,0,0,0,0,0,0,0,0,0,0,0,0,0],"sum_hessian":[4.4803668E2,1.3337653E2,3.1466016E2,7.8554306E1,5.4822227E1,9.645216E1,2.1820798E2,7.7554306E1,1E0,3.6329964E1,1.8492264E1,8.5989395E1,1.0462771E1,5.993752E1,1.5827046E2],"tree_param":{"num_deleted":"0","num_feature":"6","num_nodes":"15","size_leaf_vector":"1"}},{"base_weights":[-2.16484E-4,-1.2024014E0,5.111697E-1,-1.455056E0,-8.2110786E-1,-4.401427E-2,7.5573134E-1,-1.4736054E-2,-0E0,-1.0623512E-2,-3.1728281E-3,-1.7175319E-3,9.297149E-3,5.263887E-3,9.002745E-3],"categories":[],"categories_nodes":[],"categories_segments":[],"categories_sizes":[],"default_left":[0,0,0,0,0,0,0,0,0,0,0,0,0,0,0],"id":13,"left_children":[1,3,5,7,9,11,13,-1,-1,-1,-1,-1,-1,-1,-1],"loss_changes":[2.765278E2,1.1736832E1,4.287957E1,2.1441803E0,6.4443054E0,1.2280114E1,6.7899323E0,0E0,0E0,0E0,0E0,0E0,0E0,0E0,0E0],"parents":[2147483647,0,0,1,1,2,2,3,3,4,4,5,5,6,6],"right_children":[2,4,6,8,10,12,14,-1,-1,-1,-1,-1,-1,-1,-1],"split_conditions":[4.4615385E-1,2.769231E-1,6.4615387E-1,8.125318E-1,3.528421E-1,4.7789472E-1,7.846154E-1,-1.4736054E-2,-0E0,-1.0623512E-2,-3.1728281E-3,-1.7175319E-3,9.297149E-3,5.263887E-3,9.002745E-3],"split_indices":[0,0,0,3,1,1,0,0,0,0,0,0,0,0,0],"split_type":[0,0,0,0,0,0,0,0,0,0,0,0,0,0,0],"sum_hessian":[4.477993E2,1.3323483E2,3.1456445E2,7.844147E1,5.479336E1,9.644437E1,2.181201E2,7.744147E1,1E0,3.6302357E1,1.8491005E1,8.598766E1,1.0456701E1,8.611911E1,1.3200099E2],"tree_param":{"num_deleted":"0","num_feature":"6","num_nodes":"15","size_leaf_vector":"1"}},{"base_weights":[-2.306579E-4,-1.1919365E0,5.062921E-1,-1.5364864E-2,-9.1063523E-1,-4.3499596E-2,7.485608E-1,-1.1248282E-2,-4.1682166E-3,-1.7005882E-3,9.217521E-3,4.520182E-3,8.573908E-3],"categories":[],"categories_nodes":[],"categories_segments":[],"categories_sizes":[],"default_left":[0,0,0,0,0,0,0,0,0,0,0,0,0],"id":14,"left_children":[1,3,5,-1,7,9,11,-1,-1,-1,-1,-1,-1],"loss_changes":[2.713579E2,1.1596573E1,4.205133E1,0E0,7.5985794E0,1.205969E1,6.6810303E0,0E0,0E0,0E0,0E0,0E0,0E0],"parents":[2147483647,0,0,1,1,2,2,4,4,5,5,6,6],"right_children":[2,4,6,-1,8,10,12,-1,-1,-1,-1,-1,-1],"split_conditions":[4.4615385E-1,2.1538462E-1,6.4615387E-1,-1.5364864E-2,3.6042106E-1,4.7789472E-1,7.3846155E-1,-1.1248282E-2,-4.1682166E-3,-1.7005882E-3,9.217521E-3,4.520182E-3,8.573908E-3],"split_indices":[0,0,0,0,1,1,0,0,0,0,0,0,0],"split_type":[0,0,0,0,0,0,0,0,0,0,0,0,0],"sum_hessian":[4.475466E2,1.3308405E2,3.1446255E2,5.781171E1,7.527233E1,9.643608E1,2.1802649E2,5.160896E1,2.3663368E1,8.598584E1,1.0450235E1,5.9916954E1,1.5810953E2],"tree_param":{"num_deleted":"0","num_feature":"6","num_nodes":"13","size_leaf_vector":"1"}},{"base_weights":[-2.5262343E-4,-1.1816182E0,5.0146717E-1,-1.4315343E0,-8.0522156E-1,-4.299094E-2,7.4147177E-1,-1.458297E-2,-4.27301E-3,-1.0428362E-2,-3.0983074E-3,-1.6838143E-3,9.13889E-3,5.1573855E-3,8.83853E-3],"categories":[],"categories_nodes":[],"categories_segments":[],"categories_sizes":[],"default_left":[0,0,0,0,0,0,0,0,0,0,0,0,0,0,0],"id":15,"left_children":[1,3,5,7,9,11,13,-1,-1,-1,-1,-1,-1,-1,-1],"loss_changes":[2.6629703E2,1.1445694E1,4.124006E1,1.5055084E0,6.236656E0,1.1843563E1,6.5805283E0,0E0,0E0,0E0,0E0,0E0,0E0,0E0,0E0],"parents":[2147483647,0,0,1,1,2,2,3,3,4,4,5,5,6,6],"right_children":[2,4,6,8,10,12,14,-1,-1,-1,-1,-1,-1,-1,-1],"split_conditions":[4.4615385E-1,2.769231E-1,6.4615387E-1,6.08421E-1,3.528421E-1,4.7789472E-1,7.846154E-1,-1.458297E-2,-4.27301E-3,-1.0428362E-2,-3.0983074E-3,-1.6838143E-3,9.13889E-3,5.1573855E-3,8.83853E-3],"split_indices":[0,0,0,1,1,1,0,0,0,0,0,0,0,0,0],"split_type":[0,0,0,0,0,0,0,0,0,0,0,0,0,0,0],"sum_hessian":[4.4728412E2,1.329293E2,3.143548E2,7.820217E1,5.472714E1,9.642729E1,2.179275E2,7.573178E1,2.4703932E0,3.6239666E1,1.8487473E1,8.59839E1,1.0443385E1,8.607896E1,1.3184856E2],"tree_param":{"num_deleted":"0","num_feature":"6","num_nodes":"15","size_leaf_vector":"1"}},{"base_weights":[-2.7611834E-4,-1.1715041E0,4.9670088E-1,-1.5124377E-2,-8.9369375E-1,-4.2488385E-2,7.34473E-1,-1.1049551E-2,-4.0742513E-3,-1.6672111E-3,9.061236E-3,4.426682E-3,8.416572E-3],"categories":[],"categories_nodes":[],"categories_segments":[],"categories_sizes":[],"default_left":[0,0,0,0,0,0,0,0,0,0,0,0,0],"id":16,"left_children":[1,3,5,-1,7,9,11,-1,-1,-1,-1,-1,-1],"loss_changes":[2.6135336E2,1.13177185E1,4.044645E1,0E0,7.372593E0,1.1631651E1,6.4715195E0,0E0,0E0,0E0,0E0,0E0,0E0],"parents":[2147483647,0,0,1,1,2,2,4,4,5,5,6,6],"right_children":[2,4,6,-1,8,10,12,-1,-1,-1,-1,-1,-1],"split_conditions":[4.4615385E-1,2.1538462E-1,6.4615387E-1,-1.5124377E-2,3.6042106E-1,4.7789472E-1,7.3846155E-1,-1.1049551E-2,-4.0742513E-3,-1.6672111E-3,9.061236E-3,4.426682E-3,8.416572E-3],"split_indices":[0,0,0,0,1,1,0,0,0,0,0,0,0],"split_type":[0,0,0,0,0,0,0,0,0,0,0,0,0],"sum_hessian":[4.470045E2,1.3276332E2,3.1424118E2,5.7614136E1,7.5149185E1,9.6418015E1,2.1782317E2,5.150174E1,2.3647442E1,8.598186E1,1.0436163E1,5.9893986E1,1.5792917E2],"tree_param":{"num_deleted":"0","num_feature":"6","num_nodes":"13","size_leaf_vector":"1"}},{"base_weights":[-2.9744016E-4,-1.1615103E0,4.9198538E-1,-1.4088957E0,-7.8974754E-1,-4.1991353E-2,7.2755253E-1,-1.43542355E-2,-4.1716113E-3,-1.0238743E-2,-3.0255353E-3,-1.6507701E-3,8.984534E-3,5.053267E-3,8.678436E-3],"categories":[],"categories_nodes":[],"categories_segments":[],"categories_sizes":[],"default_left":[0,0,0,0,0,0,0,0,0,0,0,0,0,0,0],"id":17,"left_children":[1,3,5,7,9,11,13,-1,-1,-1,-1,-1,-1,-1,-1],"loss_changes":[2.5650513E2,1.11736145E1,3.9668938E1,1.4779663E0,6.0383224E0,1.1423837E1,6.3801575E0,0E0,0E0,0E0,0E0,0E0,0E0,0E0,0E0],"parents":[2147483647,0,0,1,1,2,2,3,3,4,4,5,5,6,6],"right_children":[2,4,6,8,10,12,14,-1,-1,-1,-1,-1,-1,-1,-1],"split_conditions":[4.4615385E-1,2.769231E-1,6.4615387E-1,6.08421E-1,3.528421E-1,4.7789472E-1,7.846154E-1,-1.43542355E-2,-4.1716113E-3,-1.0238743E-2,-3.0255353E-3,-1.6507701E-3,8.984534E-3,5.053267E-3,8.678436E-3],"split_indices":[0,0,0,1,1,1,0,0,0,0,0,0,0,0,0],"split_type":[0,0,0,0,0,0,0,0,0,0,0,0,0,0,0],"sum_hessian":[4.467142E2,1.3259212E2,3.141221E2,7.7938835E1,5.465328E1,9.64083E1,2.1771379E2,7.547263E1,2.4662087E0,3.6169853E1,1.8483425E1,8.597972E1,1.0428579E1,8.603442E1,1.3167937E2],"tree_param":{"num_deleted":"0","num_feature":"6","num_nodes":"15","size_leaf_vector":"1"}},{"base_weights":[-3.2021108E-4,-1.1517105E0,4.873266E-1,-1.489317E-2,-8.7720215E-1,-4.1500334E-2,7.207189E-1,-1.0856592E-2,-3.982419E-3,-1.6344966E-3,8.9087635E-3,4.335254E-3,8.263091E-3],"categories":[],"categories_nodes":[],"categories_segments":[],"categories_sizes":[],"default_left":[0,0,0,0,0,0,0,0,0,0,0,0,0],"id":18,"left_children":[1,3,5,-1,7,9,11,-1,-1,-1,-1,-1,-1],"loss_changes":[2.5176811E2,1.1057465E1,3.890821E1,0E0,7.157112E0,1.1220044E1,6.2707596E0,0E0,0E0,0E0,0E0,0E0,0E0],"parents":[2147483647,0,0,1,1,2,2,4,4,5,5,6,6],"right_children":[2,4,6,-1,8,10,12,-1,-1,-1,-1,-1,-1],"split_conditions":[4.4615385E-1,2.1538462E-1,6.4615387E-1,-1.489317E-2,3.6042106E-1,4.7789472E-1,7.3846155E-1,-1.0856592E-2,-3.982419E-3,-1.6344966E-3,8.9087635E-3,4.335254E-3,8.263091E-3],"split_indices":[0,0,0,0,1,1,0,0,0,0,0,0,0],"split_type":[0,0,0,0,0,0,0,0,0,0,0,0,0],"sum_hessian":[4.4640775E2,1.324102E2,3.1399753E2,5.7395927E1,7.5014275E1,9.6398125E1,2.1759941E2,5.138386E1,2.3630415E1,8.597748E1,1.0420646E1,5.986878E1,1.5773064E2],"tree_param":{"num_deleted":"0","num_feature":"6","num_nodes":"13","size_leaf_vector":"1"}},{"base_weights":[-3.4091529E-4,-1.1420227E0,4.8271665E-1,-1.3870637E0,-7.7466667E-1,-4.1014533E-2,7.139602E-1,-1.4133783E-2,-4.0724063E-3,-1.0054363E-2,-2.9544602E-3,-1.6183805E-3,8.833908E-3,4.951454E-3,8.522286E-3],"categories":[],"categories_nodes":[],"categories_segments":[],"categories_sizes":[],"default_left":[0,0,0,0,0,0,0,0,0,0,0,0,0,0,0],"id":19,"left_children":[1,3,5,7,9,11,13,-1,-1,-1,-1,-1,-1,-1,-1],"loss_changes":[2.4712135E2,1.0917908E1,3.816275E1,1.4523621E0,5.8486633E0,1.102017E1,6.188179E0,0E0,0E0,0E0,0E0,0E0,0E0,0E0,0E0],"parents":[2147483647,0,0,1,1,2,2,3,3,4,4,5,5,6,6],"right_children":[2,4,6,8,10,12,14,-1,-1,-1,-1,-1,-1,-1,-1],"split_conditions":[4.4615385E-1,2.769231E-1,6.4615387E-1,6.08421E-1,3.528421E-1,4.7789472E-1,7.846154E-1,-1.4133783E-2,-4.0724063E-3,-1.0054363E-2,-2.9544602E-3,-1.6183805E-3,8.833908E-3,4.951454E-3,8.522286E-3],"split_indices":[0,0,0,1,1,1,0,0,0,0,0,0,0,0,0],"split_type":[0,0,0,0,0,0,0,0,0,0,0,0,0,0,0],"sum_hessian":[4.4609146E2,1.322236E2,3.1386786E2,7.765132E1,5.457228E1,9.638752E1,2.1748035E2,7.518951E1,2.4618096E0,3.609338E1,1.8478903E1,8.597515E1,1.0412374E1,8.5985794E1,1.3149455E2],"tree_param":{"num_deleted":"0","num_feature":"6","num_nodes":"15","size_leaf_vector":"1"}},{"base_weights":[-3.6304691E-4,-1.1325192E0,4.7816148E-1,-1.4670658E-2,-8.6113846E-1,-4.053466E-2,7.072851E-1,-1.0669096E-2,-3.8926487E-3,-1.6024293E-3,8.759944E-3,4.903857E-3,8.444109E-3],"categories":[],"categories_nodes":[],"categories_segments":[],"categories_sizes":[],"default_left":[0,0,0,0,0,0,0,0,0,0,0,0,0],"id":20,"left_children":[1,3,5,-1,7,9,11,-1,-1,-1,-1,-1,-1],"loss_changes":[2.425802E2,1.0814102E1,3.7433296E1,0E0,6.9513626E0,1.0824142E1,6.0803757E0,0E0,0E0,0E0,0E0,0E0,0E0],"parents":[2147483647,0,0,1,1,2,2,4,4,5,5,6,6],"right_children":[2,4,6,-1,8,10,12,-1,-1,-1,-1,-1,-1],"split_conditions":[4.4615385E-1,2.1538462E-1,6.4615387E-1,-1.4670658E-2,3.6042106E-1,4.7789472E-1,7.846154E-1,-1.0669096E-2,-3.8926487E-3,-1.6024293E-3,8.759944E-3,4.903857E-3,8.444109E-3],"split_indices":[0,0,0,0,1,1,0,0,0,0,0,0,0],"split_type":[0,0,0,0,0,0,0,0,0,0,0,0,0],"sum_hessian":[4.4575995E2,1.3202684E2,3.137331E2,5.715843E1,7.486841E1,9.6376495E1,2.173566E2,5.1256042E1,2.3612368E1,8.5972725E1,1.0403772E1,8.5962006E1,1.313946E2],"tree_param":{"num_deleted":"0","num_feature":"6","num_nodes":"13","size_leaf_vector":"1"}},{"base_weights":[-3.8097362E-4,-1.1231204E0,4.7365686E-1,-1.3659887E0,-7.599619E-1,-4.006014E-2,7.0068705E-1,-1.3834713E-2,-1.5627159E-3,-9.874954E-3,-2.885042E-3,-1.5866355E-3,8.686855E-3,4.198674E-3,8.040975E-3],"categories":[],"categories_nodes":[],"categories_segments":[],"categories_sizes":[],"default_left":[0,0,0,0,0,0,0,0,0,0,0,0,0,0,0],"id":21,"left_children":[1,3,5,7,9,11,13,-1,-1,-1,-1,-1,-1,-1,-1],"loss_changes":[2.381257E2,1.0677109E1,3.6718872E1,1.4406433E0,5.667076E0,1.0631868E1,5.999672E0,0E0,0E0,0E0,0E0,0E0,0E0,0E0,0E0],"parents":[2147483647,0,0,1,1,2,2,3,3,4,4,5,5,6,6],"right_children":[2,4,6,8,10,12,14,-1,-1,-1,-1,-1,-1,-1,-1],"split_conditions":[4.4615385E-1,2.769231E-1,6.4615387E-1,7.631177E-1,3.528421E-1,4.7789472E-1,7.3846155E-1,-1.3834713E-2,-1.5627159E-3,-9.874954E-3,-2.885042E-3,-1.5866355E-3,8.686855E-3,4.198674E-3,8.040975E-3],"split_indices":[0,0,0,3,1,1,0,0,0,0,0,0,0,0,0],"split_type":[0,0,0,0,0,0,0,0,0,0,0,0,0,0,0],"sum_hessian":[4.454193E2,1.3182585E2,3.1359348E2,7.734121E1,5.448464E1,9.6365074E1,2.172284E2,7.6097824E1,1.2433841E0,3.60107E1,1.8473938E1,8.5970215E1,1.0394855E1,5.9826057E1,1.5740234E2],"tree_param":{"num_deleted":"0","num_feature":"6","num_nodes":"15","size_leaf_vector":"1"}},{"base_weights":[-3.9901157E-4,-1.1138872E0,4.6919858E-1,-1.4455946E-2,-8.4549767E-1,-3.959108E-2,6.941597E-1,-1.0729625E-2,-4.2634336E-3,-1.5709992E-3,8.614619E-3,4.805358E-3,8.293569E-3],"categories":[],"categories_nodes":[],"categories_segments":[],"categories_sizes":[],"default_left":[0,0,0,0,0,0,0,0,0,0,0,0,0],"id":22,"left_children":[1,3,5,-1,7,9,11,-1,-1,-1,-1,-1,-1],"loss_changes":[2.3376534E2,1.0583954E1,3.6018684E1,0E0,6.761177E0,1.0443261E1,5.9003677E0,0E0,0E0,0E0,0E0,0E0,0E0],"parents":[2147483647,0,0,1,1,2,2,4,4,5,5,6,6],"right_children":[2,4,6,-1,8,10,12,-1,-1,-1,-1,-1,-1],"split_conditions":[4.4615385E-1,2.1538462E-1,6.4615387E-1,-1.4455946E-2,3.3894736E-1,4.7789472E-1,7.846154E-1,-1.0729625E-2,-4.2634336E-3,-1.5709992E-3,8.614619E-3,4.805358E-3,8.293569E-3],"split_indices":[0,0,0,0,1,1,0,0,0,0,0,0,0],"split_type":[0,0,0,0,0,0,0,0,0,0,0,0,0],"sum_hessian":[4.450634E2,1.3161409E2,3.1344928E2,5.6901875E1,7.471222E1,9.635325E1,2.1709604E2,4.7419163E1,2.729306E1,8.596762E1,1.0385628E1,8.590796E1,1.3118808E2],"tree_param":{"num_deleted":"0","num_feature":"6","num_nodes":"13","size_leaf_vector":"1"}},{"base_weights":[-4.181738E-4,-1.104765E0,4.6479228E-1,-1.4348343E-2,-8.3808494E-1,-3.9127395E-2,6.877112E-1,-1.0400734E-2,-3.7637835E-3,-1.5555188E-3,8.543222E-3,6.113319E-3,1.0800317E-2],"categories":[],"categories_nodes":[],"categories_segments":[],"categories_sizes":[],"default_left":[0,0,0,0,0,0,0,0,0,0,0,0,0],"id":23,"left_children":[1,3,5,-1,7,9,11,-1,-1,-1,-1,-1,-1],"loss_changes":[2.294937E2,1.0451706E1,3.5333298E1,0E0,6.6623497E0,1.0258249E1,5.870926E0,0E0,0E0,0E0,0E0,0E0,0E0],"parents":[2147483647,0,0,1,1,2,2,4,4,5,5,6,6],"right_children":[2,4,6,-1,8,10,12,-1,-1,-1,-1,-1,-1],"split_conditions":[4.4615385E-1,2.1538462E-1,6.4615387E-1,-1.4348343E-2,3.6042106E-1,4.7789472E-1,6.722689E-1,-1.0400734E-2,-3.7637835E-3,-1.5555188E-3,8.543222E-3,6.113319E-3,1.0800317E-2],"split_indices":[0,0,0,0,1,1,2,0,0,0,0,0,0],"split_type":[0,0,0,0,0,0,0,0,0,0,0,0,0],"sum_hessian":[4.4470035E2,1.3139992E2,3.1330045E2,5.6763504E1,7.463641E1,9.634105E1,2.169594E2,5.1050182E1,2.3586227E1,8.596494E1,1.0376104E1,1.8374507E2,3.3214325E1],"tree_param":{"num_deleted":"0","num_feature":"6","num_nodes":"13","size_leaf_vector":"1"}},{"base_weights":[-4.2659158E-4,-1.0957708E0,4.6043628E-1,-1.3359656E0,-7.381134E-1,-3.866884E-2,6.813317E-1,-1.3621426E-2,-3.7539888E-3,-9.611064E-3,-2.7776824E-3,-1.5401904E-3,8.472642E-3,4.0473426E-3,7.833721E-3],"categories":[],"categories_nodes":[],"categories_segments":[],"categories_sizes":[],"default_left":[0,0,0,0,0,0,0,0,0,0,0,0,0,0,0],"id":24,"left_children":[1,3,5,7,9,11,13,-1,-1,-1,-1,-1,-1,-1,-1],"loss_changes":[2.2531038E2,1.0369095E1,3.4661858E1,1.4459076E0,5.413822E0,1.0076741E1,5.830887E0,0E0,0E0,0E0,0E0,0E0,0E0,0E0,0E0],"parents":[2147483647,0,0,1,1,2,2,3,3,4,4,5,5,6,6],"right_children":[2,4,6,8,10,12,14,-1,-1,-1,-1,-1,-1,-1,-1],"split_conditions":[4.4615385E-1,2.769231E-1,6.4615387E-1,6.08421E-1,3.528421E-1,4.7789472E-1,7.3846155E-1,-1.3621426E-2,-3.7539888E-3,-9.611064E-3,-2.7776824E-3,-1.5401904E-3,8.472642E-3,4.0473426E-3,7.833721E-3],"split_indices":[0,0,0,1,1,1,0,0,0,0,0,0,0,0,0],"split_type":[0,0,0,0,0,0,0,0,0,0,0,0,0,0,0],"sum_hessian":[4.4433337E2,1.3117911E2,3.1315427E2,7.683983E1,5.433928E1,9.632848E1,2.1682579E2,7.439441E1,2.445424E0,3.587398E1,1.8465296E1,8.596219E1,1.0366293E1,5.977157E1,1.5705421E2],"tree_param":{"num_deleted":"0","num_feature":"6","num_nodes":"15","size_leaf_vector":"1"}},{"base_weights":[-4.4928503E-4,-1.0869364E0,4.5612162E-1,-1.4145361E-2,-8.2300085E-1,-3.8215645E-2,6.75022E-1,-1.0464005E-2,-4.1270843E-3,-1.5250162E-3,8.402867E-3,5.9924293E-3,1.0646268E-2],"categories":[],"categories_nodes":[],"categories_segments":[],"categories_sizes":[],"default_left":[0,0,0,0,0,0,0,0,0,0,0,0,0],"id":25,"left_children":[1,3,5,-1,7,9,11,-1,-1,-1,-1,-1,-1],"loss_changes":[2.212154E2,1.0244873E1,3.4003624E1,0E0,6.485359E0,9.898677E0,5.788849E0,0E0,0E0,0E0,0E0,0E0,0E0],"parents":[2147483647,0,0,1,1,2,2,4,4,5,5,6,6],"right_children":[2,4,6,-1,8,10,12,-1,-1,-1,-1,-1,-1],"split_conditions":[4.4615385E-1,2.1538462E-1,6.4615387E-1,-1.4145361E-2,3.3894736E-1,4.7789472E-1,6.722689E-1,-1.0464005E-2,-4.1270843E-3,-1.5250162E-3,8.402867E-3,5.9924293E-3,1.0646268E-2],"split_indices":[0,0,0,0,1,1,2,0,0,0,0,0,0],"split_type":[0,0,0,0,0,0,0,0,0,0,0,0,0],"sum_hessian":[4.4394684E2,1.3094962E2,3.1299722E2,5.6482937E1,7.446668E1,9.6315575E1,2.1668166E2,4.7210632E1,2.7256052E1,8.595937E1,1.0356203E1,1.8352388E2,3.3157772E1],"tree_param":{"num_deleted":"0","num_feature":"6","num_nodes":"13","size_leaf_vector":"1"}},{"base_weights":[-4.589844E-4,-1.0781966E0,4.5185906E-1,-1.3166006E0,-7.2426856E-1,-3.776753E-2,6.687837E-1,-1.8389715E-3,-1.3357751E-2,-9.442516E-3,-2.7129878E-3,-1.509992E-3,8.333879E-3,4.5822244E-3,8.023617E-3],"categories":[],"categories_nodes":[],"categories_segments":[],"categories_sizes":[],"default_left":[0,0,0,0,0,0,0,0,0,0,0,0,0,0,0],"id":26,"left_children":[1,3,5,7,9,11,13,-1,-1,-1,-1,-1,-1,-1,-1],"loss_changes":[2.1720132E2,1.0160446E1,3.3359177E1,1.4371338E0,5.247917E0,9.723972E0,5.750969E0,0E0,0E0,0E0,0E0,0E0,0E0,0E0,0E0],"parents":[2147483647,0,0,1,1,2,2,3,3,4,4,5,5,6,6],"right_children":[2,4,6,8,10,12,14,-1,-1,-1,-1,-1,-1,-1,-1],"split_conditions":[4.4615385E-1,2.769231E-1,6.4615387E-1,3.8655463E-1,3.528421E-1,4.7789472E-1,7.846154E-1,-1.8389715E-3,-1.3357751E-2,-9.442516E-3,-2.7129878E-3,-1.509992E-3,8.333879E-3,4.5822244E-3,8.023617E-3],"split_indices":[0,0,0,2,1,1,0,0,0,0,0,0,0,0,0],"split_type":[0,0,0,0,0,0,0,0,0,0,0,0,0,0,0],"sum_hessian":[4.4355994E2,1.30717E2,3.1284293E2,7.648031E1,5.4236687E1,9.630231E1,2.1654063E2,1.4494121E0,7.50309E1,3.57771E1,1.8459589E1,8.595647E1,1.0345844E1,8.577011E1,1.3077052E2],"tree_param":{"num_deleted":"0","num_feature":"6","num_nodes":"15","size_leaf_vector":"1"}},{"base_weights":[-4.7468595E-4,-1.069587E0,4.476395E-1,-1.39490375E-2,-8.082811E-1,-3.7324514E-2,6.626174E-1,-1.0058033E-2,-3.5891533E-3,-1.4951171E-3,8.265659E-3,5.874392E-3,1.04952E-2],"categories":[],"categories_nodes":[],"categories_segments":[],"categories_sizes":[],"default_left":[0,0,0,0,0,0,0,0,0,0,0,0,0],"id":27,"left_children":[1,3,5,-1,7,9,11,-1,-1,-1,-1,-1,-1],"loss_changes":[2.1326622E2,1.0048981E1,3.2727707E1,0E0,6.321663E0,9.552556E0,5.7065964E0,0E0,0E0,0E0,0E0,0E0,0E0],"parents":[2147483647,0,0,1,1,2,2,4,4,5,5,6,6],"right_children":[2,4,6,-1,8,10,12,-1,-1,-1,-1,-1,-1],"split_conditions":[4.4615385E-1,2.1538462E-1,6.4615387E-1,-1.39490375E-2,3.6042106E-1,4.7789472E-1,6.722689E-1,-1.0058033E-2,-3.5891533E-3,-1.4951171E-3,8.265659E-3,5.874392E-3,1.04952E-2],"split_indices":[0,0,0,0,1,1,2,0,0,0,0,0,0],"split_type":[0,0,0,0,0,0,0,0,0,0,0,0,0],"sum_hessian":[4.4315445E2,1.3047646E2,3.12678E2,5.6187157E1,7.428929E1,9.628872E1,2.1638928E2,5.0745457E1,2.3543835E1,8.59535E1,1.0335226E1,1.8329248E2,3.3096806E1],"tree_param":{"num_deleted":"0","num_feature":"6","num_nodes":"13","size_leaf_vector":"1"}},{"base_weights":[-4.8253103E-4,-1.0610814E0,4.434674E-1,-1.2978004E0,-7.107597E-1,-3.6886405E-2,6.5651554E-1,-1.3239394E-2,-3.5068754E-3,-9.278654E-3,-2.6490982E-3,-4.50068E-3,1.9459097E-3,3.8388993E-3,7.5735175E-3],"categories":[],"categories_nodes":[],"categories_segments":[],"categories_sizes":[],"default_left":[0,0,0,0,0,0,0,0,0,0,0,0,0,0,0],"id":28,"left_children":[1,3,5,7,9,11,13,-1,-1,-1,-1,-1,-1,-1,-1],"loss_changes":[2.0941087E2,9.960403E0,3.2108986E1,1.4445343E0,5.0905037E0,9.391157E0,5.681343E0,0E0,0E0,0E0,0E0,0E0,0E0,0E0,0E0],"parents":[2147483647,0,0,1,1,2,2,3,3,4,4,5,5,6,6],"right_children":[2,4,6,8,10,12,14,-1,-1,-1,-1,-1,-1,-1,-1],"split_conditions":[4.4615385E-1,2.769231E-1,6.4615387E-1,6.08421E-1,3.528421E-1,2.5305262E-1,7.3846155E-1,-1.3239394E-2,-3.5068754E-3,-9.278654E-3,-2.6490982E-3,-4.50068E-3,1.9459097E-3,3.8388993E-3,7.5735175E-3],"split_indices":[0,0,0,1,1,1,0,0,0,0,0,0,0,0,0],"split_type":[0,0,0,0,0,0,0,0,0,0,0,0,0,0,0],"sum_hessian":[4.4274866E2,1.3023247E2,3.125162E2,7.6103386E1,5.4129078E1,9.627482E1,2.1624138E2,7.3672264E1,2.4311247E0,3.5675728E1,1.845335E1,3.423027E1,6.2044548E1,5.968399E1,1.5655739E2],"tree_param":{"num_deleted":"0","num_feature":"6","num_nodes":"15","size_leaf_vector":"1"}},{"base_weights":[-5.2502105E-4,-1.0527201E0,4.3928966E-1,-1.3759603E-2,-7.939053E-1,-3.6545426E-2,6.50478E-1,-1.0125838E-2,-3.9421218E-3,-1.4742719E-3,8.182342E-3,5.7587028E-3,1.0348525E-2],"categories":[],"categories_nodes":[],"categories_segments":[],"categories_sizes":[],"default_left":[0,0,0,0,0,0,0,0,0,0,0,0,0],"id":29,"left_children":[1,3,5,-1,7,9,11,-1,-1,-1,-1,-1,-1],"loss_changes":[2.0562498E2,9.865387E0,3.1513004E1,0E0,6.1651726E0,9.339896E0,5.6294403E0,0E0,0E0,0E0,0E0,0E0,0E0],"parents":[2147483647,0,0,1,1,2,2,4,4,5,5,6,6],"right_children":[2,4,6,-1,8,10,12,-1,-1,-1,-1,-1,-1],"split_conditions":[4.4615385E-1,2.1538462E-1,6.4615387E-1,-1.3759603E-2,3.3894736E-1,4.7789472E-1,6.722689E-1,-1.0125838E-2,-3.9421218E-3,-1.4742719E-3,8.182342E-3,5.7587028E-3,1.0348525E-2],"split_indices":[0,0,0,0,1,1,2,0,0,0,0,0,0],"split_type":[0,0,0,0,0,0,0,0,0,0,0,0,0],"sum_hessian":[4.4233505E2,1.2998076E2,3.123543E2,5.5877518E1,7.410323E1,9.627071E1,2.160836E2,4.690652E1,2.7196716E1,8.594897E1,1.0321749E1,1.8305124E2,3.3032352E1],"tree_param":{"num_deleted":"0","num_feature":"6","num_nodes":"13","size_leaf_vector":"1"}},{"base_weights":[-5.3381355E-4,-1.0444434E0,4.352055E-1,-1.2796216E0,-6.975482E-1,7.750553E-2,7.12051E-1,-1.2972982E-2,-1.1006625E-3,-9.1182375E-3,-2.58742E-3,-4.545994E-3,2.1836655E-3,6.3067707E-3,1.0995026E-2],"categories":[],"categories_nodes":[],"categories_segments":[],"categories_sizes":[],"default_left":[0,0,0,0,0,0,0,0,0,0,0,0,0,0,0],"id":30,"left_children":[1,3,5,7,9,11,13,-1,-1,-1,-1,-1,-1,-1,-1],"loss_changes":[2.0192317E2,9.772369E0,3.0958855E1,1.4430847E0,4.9370346E0,1.0424907E1,4.8689346E0,0E0,0E0,0E0,0E0,0E0,0E0,0E0,0E0],"parents":[2147483647,0,0,1,1,2,2,3,3,4,4,5,5,6,6],"right_children":[2,4,6,8,10,12,14,-1,-1,-1,-1,-1,-1,-1,-1],"split_conditions":[4.4615385E-1,2.769231E-1,7.076923E-1,7.631177E-1,3.528421E-1,4.789916E-1,6.722689E-1,-1.2972982E-2,-1.1006625E-3,-9.1182375E-3,-2.58742E-3,-4.545994E-3,2.1836655E-3,6.3067707E-3,1.0995026E-2],"split_indices":[0,0,0,3,1,2,2,0,0,0,0,0,0,0,0],"split_type":[0,0,0,0,0,0,0,0,0,0,0,0,0,0,0],"sum_hessian":[4.4191238E2,1.2972665E2,3.1218573E2,7.571007E1,5.4016582E1,1.3676178E2,1.7542395E2,7.4475235E1,1.2348382E0,3.55695E1,1.844708E1,2.8159916E1,1.0860186E2,1.4714734E2,2.8276619E1],"tree_param":{"num_deleted":"0","num_feature":"6","num_nodes":"15","size_leaf_vector":"1"}},{"base_weights":[-5.557149E-4,-1.0362908E0,4.311145E-1,-1.3576028E-2,-7.798806E-1,-3.6878925E-2,6.3909066E-1,-9.962371E-3,-3.8545586E-3,-1.4670042E-3,8.107181E-3,4.330165E-3,7.702222E-3],"categories":[],"categories_nodes":[],"categories_segments":[],"categories_sizes":[],"default_left":[0,0,0,0,0,0,0,0,0,0,0,0,0],"id":31,"left_children":[1,3,5,-1,7,9,11,-1,-1,-1,-1,-1,-1],"loss_changes":[1.9828496E2,9.689865E0,3.049144E1,0E0,6.0085526E0,9.171976E0,5.524376E0,0E0,0E0,0E0,0E0,0E0,0E0],"parents":[2147483647,0,0,1,1,2,2,4,4,5,5,6,6],"right_children":[2,4,6,-1,8,10,12,-1,-1,-1,-1,-1,-1],"split_conditions":[4.4615385E-1,2.1538462E-1,6.4615387E-1,-1.3576028E-2,3.3894736E-1,4.7789472E-1,7.846154E-1,-9.962371E-3,-3.8545586E-3,-1.4670042E-3,8.107181E-3,4.330165E-3,7.702222E-3],"split_indices":[0,0,0,0,1,1,0,0,0,0,0,0,0],"split_type":[0,0,0,0,0,0,0,0,0,0,0,0,0],"sum_hessian":[4.4149606E2,1.2946396E2,3.120321E2,5.5553818E1,7.391013E1,9.625631E1,2.1577579E2,4.6743702E1,2.7166433E1,8.594722E1,1.0309092E1,8.558326E1,1.3019254E2],"tree_param":{"num_deleted":"0","num_feature":"6","num_nodes":"13","size_leaf_vector":"1"}},{"base_weights":[-5.726656E-4,-1.028228E0,4.2711234E-1,-1.2182107E0,-6.099395E-1,-3.6446985E-2,6.3324493E-1,-1.2575069E-2,-1.1861856E-3,-8.5575525E-3,-1.4458841E-3,-4.4336743E-3,1.9158166E-3,5.597933E-3,1.0123174E-2],"categories":[],"categories_nodes":[],"categories_segments":[],"categories_sizes":[],"default_left":[0,0,0,0,0,0,0,0,0,0,0,0,0,0,0],"id":32,"left_children":[1,3,5,7,9,11,13,-1,-1,-1,-1,-1,-1,-1,-1],"loss_changes":[1.9472627E2,9.603653E0,2.9917446E1,3.6763E0,4.757144E0,9.107953E0,5.464447E0,0E0,0E0,0E0,0E0,0E0,0E0,0E0,0E0],"parents":[2147483647,0,0,1,1,2,2,3,3,4,4,5,5,6,6],"right_children":[2,4,6,8,10,12,14,-1,-1,-1,-1,-1,-1,-1,-1],"split_conditions":[4.4615385E-1,3.2307693E-1,6.4615387E-1,6.8262863E-1,3.528421E-1,2.5305262E-1,6.722689E-1,-1.2575069E-2,-1.1861856E-3,-8.5575525E-3,-1.4458841E-3,-4.4336743E-3,1.9158166E-3,5.597933E-3,1.0123174E-2],"split_indices":[0,0,0,3,1,1,2,0,0,0,0,0,0,0,0],"split_type":[0,0,0,0,0,0,0,0,0,0,0,0,0,0,0],"sum_hessian":[4.410511E2,1.2920029E2,3.118508E2,8.753181E1,4.1668476E1,9.6241714E1,2.1560909E2,8.437295E1,3.1588593E0,2.671675E1,1.4951724E1,3.4224052E1,6.2017666E1,1.8268716E2,3.2921925E1],"tree_param":{"num_deleted":"0","num_feature":"6","num_nodes":"15","size_leaf_vector":"1"}},{"base_weights":[-5.937527E-4,-1.0202471E0,4.231119E-1,-1.3401097E-2,-7.6586986E-1,7.4219204E-2,6.93721E-1,-9.235567E-3,-2.4718493E-3,-4.5201723E-3,2.135704E-3,6.1350935E-3,1.0763825E-2],"categories":[],"categories_nodes":[],"categories_segments":[],"categories_sizes":[],"default_left":[0,0,0,0,0,0,0,0,0,0,0,0,0],"id":33,"left_children":[1,3,5,-1,7,9,11,-1,-1,-1,-1,-1,-1],"loss_changes":[1.9122372E2,9.545624E0,2.9470024E1,0E0,5.8820686E0,1.0194693E1,4.741089E0,0E0,0E0,0E0,0E0,0E0,0E0],"parents":[2147483647,0,0,1,1,2,2,4,4,5,5,6,6],"right_children":[2,4,6,-1,8,10,12,-1,-1,-1,-1,-1,-1],"split_conditions":[4.4615385E-1,2.1538462E-1,7.076923E-1,-1.3401097E-2,3.9663157E-1,4.789916E-1,6.722689E-1,-9.235567E-3,-2.4718493E-3,-4.5201723E-3,2.135704E-3,6.1350935E-3,1.0763825E-2],"split_indices":[0,0,0,0,1,2,2,0,0,0,0,0,0],"split_type":[0,0,0,0,0,0,0,0,0,0,0,0,0],"sum_hessian":[4.4061462E2,1.2893144E2,3.116832E2,5.5223427E1,7.370802E1,1.3670523E2,1.7497797E2,5.59254E1,1.7782623E1,2.8151623E1,1.08553604E2,1.4680806E2,2.8169899E1],"tree_param":{"num_deleted":"0","num_feature":"6","num_nodes":"13","size_leaf_vector":"1"}},{"base_weights":[-6.147224E-4,-1.0123612E0,4.1914675E-1,-1.2451231E0,-6.714239E-1,-3.6841456E-2,6.2221056E-1,-1.3638025E-3,-1.2645068E-2,-8.808377E-3,-2.4518508E-3,-1.453481E-3,8.017676E-3,4.192658E-3,7.515972E-3],"categories":[],"categories_nodes":[],"categories_segments":[],"categories_sizes":[],"default_left":[0,0,0,0,0,0,0,0,0,0,0,0,0,0,0],"id":34,"left_children":[1,3,5,7,9,11,13,-1,-1,-1,-1,-1,-1,-1,-1],"loss_changes":[1.8779057E2,9.453476E0,2.8960693E1,1.4584198E0,4.6733875E0,8.964532E0,5.3641434E0,0E0,0E0,0E0,0E0,0E0,0E0,0E0,0E0],"parents":[2147483647,0,0,1,1,2,2,3,3,4,4,5,5,6,6],"right_children":[2,4,6,8,10,12,14,-1,-1,-1,-1,-1,-1,-1,-1],"split_conditions":[4.4615385E-1,2.769231E-1,6.4615387E-1,3.8655463E-1,3.528421E-1,4.7789472E-1,7.846154E-1,-1.3638025E-3,-1.2645068E-2,-8.808377E-3,-2.4518508E-3,-1.453481E-3,8.017676E-3,4.192658E-3,7.515972E-3],"split_indices":[0,0,0,2,1,1,0,0,0,0,0,0,0,0,0],"split_type":[0,0,0,0,0,0,0,0,0,0,0,0,0,0,0],"sum_hessian":[4.4018127E2,1.286605E2,3.1152075E2,7.488415E1,5.3776363E1,9.623644E1,2.1528432E2,1.424752E0,7.34594E1,3.5344738E1,1.8431627E1,8.5943054E1,1.0293391E1,8.546759E1,1.2981673E2],"tree_param":{"num_deleted":"0","num_feature":"6","num_nodes":"15","size_leaf_vector":"1"}},{"base_weights":[-6.2731665E-4,-1.0046031E0,4.152676E-1,-1.3228819E-2,-7.524121E-1,7.255344E-2,6.8150514E-1,-9.649753E-3,-3.6703658E-3,-4.484074E-3,2.1053355E-3,6.0183452E-3,1.0621121E-2],"categories":[],"categories_nodes":[],"categories_segments":[],"categories_sizes":[],"default_left":[0,0,0,0,0,0,0,0,0,0,0,0,0],"id":35,"left_children":[1,3,5,-1,7,9,11,-1,-1,-1,-1,-1,-1],"loss_changes":[1.844363E2,9.3897705E0,2.8448719E1,0E0,5.7489586E0,9.990603E0,4.687317E0,0E0,0E0,0E0,0E0,0E0,0E0],"parents":[2147483647,0,0,1,1,2,2,4,4,5,5,6,6],"right_children":[2,4,6,-1,8,10,12,-1,-1,-1,-1,-1,-1],"split_conditions":[4.4615385E-1,2.1538462E-1,7.076923E-1,-1.3228819E-2,3.3894736E-1,4.789916E-1,6.722689E-1,-9.649753E-3,-3.6703658E-3,-4.484074E-3,2.1053355E-3,6.0183452E-3,1.0621121E-2],"split_indices":[0,0,0,0,1,2,2,0,0,0,0,0,0],"split_type":[0,0,0,0,0,0,0,0,0,0,0,0,0],"sum_hessian":[4.3971326E2,1.2838197E2,3.113313E2,5.487774E1,7.350423E1,1.3667236E2,1.7465894E2,4.6404633E1,2.7099596E1,2.8147652E1,1.08524704E2,1.4656125E2,2.8097685E1],"tree_param":{"num_deleted":"0","num_feature":"6","num_nodes":"13","size_leaf_vector":"1"}},{"base_weights":[-6.5191736E-4,-9.9693644E-1,4.1138372E-1,-1.3141999E-2,-7.460556E-1,-3.712574E-2,6.114042E-1,-9.015868E-3,-2.366155E-3,-4.3855035E-3,1.8786223E-3,5.3843074E-3,9.765259E-3],"categories":[],"categories_nodes":[],"categories_segments":[],"categories_sizes":[],"default_left":[0,0,0,0,0,0,0,0,0,0,0,0,0],"id":36,"left_children":[1,3,5,-1,7,9,11,-1,-1,-1,-1,-1,-1],"loss_changes":[1.8114091E2,9.29541E0,2.8027218E1,0E0,5.682144E0,8.862936E0,5.2278214E0,0E0,0E0,0E0,0E0,0E0,0E0],"parents":[2147483647,0,0,1,1,2,2,4,4,5,5,6,6],"right_children":[2,4,6,-1,8,10,12,-1,-1,-1,-1,-1,-1],"split_conditions":[4.4615385E-1,2.1538462E-1,6.4615387E-1,-1.3141999E-2,3.9663157E-1,2.5305262E-1,6.680672E-1,-9.015868E-3,-2.366155E-3,-4.3855035E-3,1.8786223E-3,5.3843074E-3,9.765259E-3],"split_indices":[0,0,0,0,1,1,2,0,0,0,0,0,0],"split_type":[0,0,0,0,0,0,0,0,0,0,0,0,0],"sum_hessian":[4.3926483E2,1.2810146E2,3.111634E2,5.4695396E1,7.340606E1,9.622061E1,2.1494276E2,5.564728E1,1.775878E1,3.421853E1,6.200208E1,1.8120226E2,3.374052E1],"tree_param":{"num_deleted":"0","num_feature":"6","num_nodes":"13","size_leaf_vector":"1"}},{"base_weights":[-6.7552173E-4,-9.8933744E-1,4.075446E-1,-1.1772648E0,-5.790705E-1,7.033908E-2,6.699213E-1,-1.21672535E-2,-8.9047174E-4,-8.188685E-3,-1.2890692E-3,-4.4502476E-3,2.068665E-3,5.913991E-3,1.0456292E-2],"categories":[],"categories_nodes":[],"categories_segments":[],"categories_sizes":[],"default_left":[0,0,0,0,0,0,0,0,0,0,0,0,0,0,0],"id":37,"left_children":[1,3,5,7,9,11,13,-1,-1,-1,-1,-1,-1,-1,-1],"loss_changes":[1.779044E2,9.250244E0,2.7555748E1,3.643959E0,4.475485E0,9.776721E0,4.554489E0,0E0,0E0,0E0,0E0,0E0,0E0,0E0,0E0],"parents":[2147483647,0,0,1,1,2,2,3,3,4,4,5,5,6,6],"right_children":[2,4,6,8,10,12,14,-1,-1,-1,-1,-1,-1,-1,-1],"split_conditions":[4.4615385E-1,3.2307693E-1,7.076923E-1,6.8262863E-1,3.528421E-1,4.789916E-1,6.722689E-1,-1.21672535E-2,-8.9047174E-4,-8.188685E-3,-1.2890692E-3,-4.4502476E-3,2.068665E-3,5.913991E-3,1.0456292E-2],"split_indices":[0,0,0,3,1,2,2,0,0,0,0,0,0,0,0],"split_type":[0,0,0,0,0,0,0,0,0,0,0,0,0,0,0],"sum_hessian":[4.3880396E2,1.2781858E2,3.1098538E2,8.638121E1,4.143737E1,1.3664186E2,1.743435E2,8.324453E1,3.1366773E0,2.6501316E1,1.4936056E1,2.8144056E1,1.084978E2,1.463341E2,2.8009409E1],"tree_param":{"num_deleted":"0","num_feature":"6","num_nodes":"15","size_leaf_vector":"1"}},{"base_weights":[-6.9126644E-4,-9.818308E-1,4.0374E-1,-1.2980129E-2,-7.327547E-1,-3.7476078E-2,6.008133E-1,-9.424906E-3,-3.5419948E-3,-1.4465069E-3,7.921883E-3,4.02334E-3,7.2768223E-3],"categories":[],"categories_nodes":[],"categories_segments":[],"categories_sizes":[],"default_left":[0,0,0,0,0,0,0,0,0,0,0,0,0],"id":38,"left_children":[1,3,5,-1,7,9,11,-1,-1,-1,-1,-1,-1],"loss_changes":[1.7472897E2,9.171066E0,2.7135204E1,0E0,5.556671E0,8.758763E0,5.136177E0,0E0,0E0,0E0,0E0,0E0,0E0],"parents":[2147483647,0,0,1,1,2,2,4,4,5,5,6,6],"right_children":[2,4,6,-1,8,10,12,-1,-1,-1,-1,-1,-1],"split_conditions":[4.4615385E-1,2.1538462E-1,6.4615387E-1,-1.2980129E-2,3.3894736E-1,4.7789472E-1,7.846154E-1,-9.424906E-3,-3.5419948E-3,-1.4465069E-3,7.921883E-3,4.02334E-3,7.2768223E-3],"split_indices":[0,0,0,0,1,1,0,0,0,0,0,0,0],"split_type":[0,0,0,0,0,0,0,0,0,0,0,0,0],"sum_hessian":[4.3834235E2,1.2753008E2,3.108123E2,5.4339333E1,7.319075E1,9.621405E1,2.1459822E2,4.6138386E1,2.7052362E1,8.593834E1,1.0275716E1,8.530873E1,1.2928949E2],"tree_param":{"num_deleted":"0","num_feature":"6","num_nodes":"13","size_leaf_vector":"1"}},{"base_weights":[-7.0613355E-4,-9.744368E-1,4.000166E-1,-1.2048491E0,-6.400815E-1,-3.7040103E-2,5.95367E-1,-1.2462519E-2,-5.1726624E-3,-7.1022515E-3,4.388417E-3,-4.3335506E-3,1.851052E-3,5.234717E-3,9.5584225E-3],"categories":[],"categories_nodes":[],"categories_segments":[],"categories_sizes":[],"default_left":[0,0,0,0,0,0,0,0,0,0,0,0,0,0,0],"id":39,"left_children":[1,3,5,7,9,11,13,-1,-1,-1,-1,-1,-1,-1,-1],"loss_changes":[1.7162817E2,9.108246E0,2.6627369E1,1.4843674E0,4.4325695E0,8.6375475E0,5.0824356E0,0E0,0E0,0E0,0E0,0E0,0E0,0E0,0E0],"parents":[2147483647,0,0,1,1,2,2,3,3,4,4,5,5,6,6],"right_children":[2,4,6,8,10,12,14,-1,-1,-1,-1,-1,-1,-1,-1],"split_conditions":[4.4615385E-1,2.769231E-1,6.4615387E-1,5.0736845E-1,6.134454E-1,2.5305262E-1,6.680672E-1,-1.2462519E-2,-5.1726624E-3,-7.1022515E-3,4.388417E-3,-4.3335506E-3,1.851052E-3,5.234717E-3,9.5584225E-3],"split_indices":[0,0,0,1,2,1,2,0,0,0,0,0,0,0,0],"split_type":[0,0,0,0,0,0,0,0,0,0,0,0,0,0,0],"sum_hessian":[4.3785217E2,1.2723866E2,3.1061353E2,7.378685E1,5.3451813E1,9.619877E1,2.1441475E2,6.882976E1,4.9570932E0,5.0509766E1,2.9420462E0,3.4212215E1,6.1986553E1,1.8080591E2,3.3608833E1],"tree_param":{"num_deleted":"0","num_feature":"6","num_nodes":"15","size_leaf_vector":"1"}},{"base_weights":[-7.2059396E-4,-9.67043E-1,3.9629295E-1,-1.2820665E-2,-7.198945E-1,6.7339174E-2,6.528634E-1,-8.734493E-3,-2.1993958E-3,-2.651491E-4,8.097391E-3,5.7539134E-3,1.0244196E-2],"categories":[],"categories_nodes":[],"categories_segments":[],"categories_sizes":[],"default_left":[0,0,0,0,0,0,0,0,0,0,0,0,0],"id":40,"left_children":[1,3,5,-1,7,9,11,-1,-1,-1,-1,-1,-1],"loss_changes":[1.6856403E2,9.03891E0,2.6240547E1,0E0,5.487335E0,9.607646E0,4.443619E0,0E0,0E0,0E0,0E0,0E0,0E0],"parents":[2147483647,0,0,1,1,2,2,4,4,5,5,6,6],"right_children":[2,4,6,-1,8,10,12,-1,-1,-1,-1,-1,-1],"split_conditions":[4.4615385E-1,2.1538462E-1,7.076923E-1,-1.2820665E-2,3.9663157E-1,4.8842105E-1,6.722689E-1,-8.734493E-3,-2.1993958E-3,-2.651491E-4,8.097391E-3,5.7539134E-3,1.0244196E-2],"split_indices":[0,0,0,0,1,1,2,0,0,0,0,0,0],"split_type":[0,0,0,0,0,0,0,0,0,0,0,0,0],"sum_hessian":[4.3737827E2,1.2694969E2,3.104286E2,5.3970146E1,7.2979546E1,1.3657967E2,1.7384892E2,5.5260067E1,1.7719475E1,1.2210718E2,1.44724865E1,1.459632E2,2.7885727E1],"tree_param":{"num_deleted":"0","num_feature":"6","num_nodes":"13","size_leaf_vector":"1"}},{"base_weights":[-7.16291E-4,-9.597942E-1,3.9264858E-1,-1.1462657E0,-5.55716E-1,-3.7322577E-2,5.851161E-1,-1.1858508E-2,-6.7622E-4,-7.922209E-3,-1.148226E-3,-4.2895204E-3,1.8222264E-3,3.895796E-3,7.1036154E-3],"categories":[],"categories_nodes":[],"categories_segments":[],"categories_sizes":[],"default_left":[0,0,0,0,0,0,0,0,0,0,0,0,0,0,0],"id":41,"left_children":[1,3,5,7,9,11,13,-1,-1,-1,-1,-1,-1,-1,-1],"loss_changes":[1.655792E2,8.981575E0,2.5778522E1,3.6091309E0,4.314457E0,8.433712E0,4.990059E0,0E0,0E0,0E0,0E0,0E0,0E0,0E0,0E0],"parents":[2147483647,0,0,1,1,2,2,3,3,4,4,5,5,6,6],"right_children":[2,4,6,8,10,12,14,-1,-1,-1,-1,-1,-1,-1,-1],"split_conditions":[4.4615385E-1,3.2307693E-1,6.4615387E-1,6.8262863E-1,3.528421E-1,2.5305262E-1,7.846154E-1,-1.1858508E-2,-6.7622E-4,-7.922209E-3,-1.148226E-3,-4.2895204E-3,1.8222264E-3,3.895796E-3,7.1036154E-3],"split_indices":[0,0,0,3,1,1,0,0,0,0,0,0,0,0,0],"split_type":[0,0,0,0,0,0,0,0,0,0,0,0,0,0,0],"sum_hessian":[4.3689172E2,1.2665336E2,3.1023837E2,8.540462E1,4.1248737E1,9.6179695E1,2.1405867E2,8.228544E1,3.1191804E0,2.6328629E1,1.492011E1,3.420689E1,6.1972805E1,8.5181526E1,1.2887714E2],"tree_param":{"num_deleted":"0","num_feature":"6","num_nodes":"15","size_leaf_vector":"1"}},{"base_weights":[-7.423009E-4,-9.526276E-1,3.8899568E-1,-1.2667967E-2,-7.0714504E-1,6.584305E-2,6.4147866E-1,-1.01835765E-2,-4.5207627E-3,-4.434916E-3,2.0083368E-3,5.644958E-3,1.0112827E-2],"categories":[],"categories_nodes":[],"categories_segments":[],"categories_sizes":[],"default_left":[0,0,0,0,0,0,0,0,0,0,0,0,0],"id":42,"left_children":[1,3,5,-1,7,9,11,-1,-1,-1,-1,-1,-1],"loss_changes":[1.6263788E2,8.925957E0,2.5335918E1,0E0,5.394306E0,9.545877E0,4.3969116E0,0E0,0E0,0E0,0E0,0E0,0E0],"parents":[2147483647,0,0,1,1,2,2,4,4,5,5,6,6],"right_children":[2,4,6,-1,8,10,12,-1,-1,-1,-1,-1,-1],"split_conditions":[4.4615385E-1,2.1538462E-1,7.076923E-1,-1.2667967E-2,1E0,4.789916E-1,6.722689E-1,-1.01835765E-2,-4.5207627E-3,-4.434916E-3,2.0083368E-3,5.644958E-3,1.0112827E-2],"split_indices":[0,0,0,0,4,2,2,0,0,0,0,0,0],"split_type":[0,0,0,0,0,0,0,0,0,0,0,0,0],"sum_hessian":[4.363949E2,1.2635199E2,3.1004288E2,5.359744E1,7.2754555E1,1.3654277E2,1.7350012E2,3.1422764E1,4.133179E1,2.8127861E1,1.0841491E2,1.4569662E2,2.7803501E1],"tree_param":{"num_deleted":"0","num_feature":"6","num_nodes":"13","size_leaf_vector":"1"}},{"base_weights":[-7.701645E-4,-9.455082E-1,3.8537788E-1,-1.1744459E0,-6.1604315E-1,-3.762726E-2,5.7504314E-1,-1.215945E-2,-4.9208086E-3,-6.8581193E-3,4.490718E-3,-1.423843E-3,7.756316E-3,5.0470466E-3,9.287913E-3],"categories":[],"categories_nodes":[],"categories_segments":[],"categories_sizes":[],"default_left":[0,0,0,0,0,0,0,0,0,0,0,0,0,0,0],"id":43,"left_children":[1,3,5,7,9,11,13,-1,-1,-1,-1,-1,-1,-1,-1],"loss_changes":[1.5975584E2,8.86013E0,2.4961693E1,1.4932785E0,4.3353424E0,8.388948E0,4.873123E0,0E0,0E0,0E0,0E0,0E0,0E0,0E0,0E0],"parents":[2147483647,0,0,1,1,2,2,3,3,4,4,5,5,6,6],"right_children":[2,4,6,8,10,12,14,-1,-1,-1,-1,-1,-1,-1,-1],"split_conditions":[4.4615385E-1,2.769231E-1,6.4615387E-1,5.0736845E-1,6.134454E-1,4.7789472E-1,6.680672E-1,-1.215945E-2,-4.9208086E-3,-6.8581193E-3,4.490718E-3,-1.423843E-3,7.756316E-3,5.0470466E-3,9.287913E-3],"split_indices":[0,0,0,1,2,1,2,0,0,0,0,0,0,0,0],"split_type":[0,0,0,0,0,0,0,0,0,0,0,0,0,0,0],"sum_hessian":[4.359179E2,1.26058495E2,3.098594E2,7.286298E1,5.319551E1,9.617178E1,2.1368764E2,6.7948616E1,4.914365E0,5.0259453E1,2.9360545E0,8.592818E1,1.024361E1,1.8026991E2,3.341772E1],"tree_param":{"num_deleted":"0","num_feature":"6","num_nodes":"15","size_leaf_vector":"1"}},{"base_weights":[-7.628562E-4,-9.3843895E-1,3.8184118E-1,-1.2517267E-2,-6.947433E-1,6.387426E-2,6.3068676E-1,-9.028463E-3,-3.2250239E-3,-4.402235E-3,1.9750923E-3,5.547753E-3,9.960319E-3],"categories":[],"categories_nodes":[],"categories_segments":[],"categories_sizes":[],"default_left":[0,0,0,0,0,0,0,0,0,0,0,0,0],"id":44,"left_children":[1,3,5,-1,7,9,11,-1,-1,-1,-1,-1,-1],"loss_changes":[1.5692601E2,8.807953E0,2.4540367E1,0E0,5.405964E0,9.349604E0,4.2774963E0,0E0,0E0,0E0,0E0,0E0,0E0],"parents":[2147483647,0,0,1,1,2,2,4,4,5,5,6,6],"right_children":[2,4,6,-1,8,10,12,-1,-1,-1,-1,-1,-1],"split_conditions":[4.4615385E-1,2.1538462E-1,7.076923E-1,-1.2517267E-2,3.3894736E-1,4.789916E-1,6.722689E-1,-9.028463E-3,-3.2250239E-3,-4.402235E-3,1.9750923E-3,5.547753E-3,9.960319E-3],"split_indices":[0,0,0,0,1,2,2,0,0,0,0,0,0],"split_type":[0,0,0,0,0,0,0,0,0,0,0,0,0],"sum_hessian":[4.3541507E2,1.2575796E2,3.0965714E2,5.3212788E1,7.2545166E1,1.3649933E2,1.7315779E2,4.561721E1,2.6927958E1,2.8122272E1,1.0837706E2,1.4545386E2,2.770393E1],"tree_param":{"num_deleted":"0","num_feature":"6","num_nodes":"13","size_leaf_vector":"1"}},{"base_weights":[-7.853911E-4,-9.315326E-1,3.78295E-1,-1.116819E0,-5.331949E-1,-3.782232E-2,5.651646E-1,-1.1566163E-2,-4.5762418E-4,-7.67797E-3,-9.895999E-4,-1.4158037E-3,7.687144E-3,3.7378704E-3,6.880871E-3],"categories":[],"categories_nodes":[],"categories_segments":[],"categories_sizes":[],"default_left":[0,0,0,0,0,0,0,0,0,0,0,0,0,0,0],"id":45,"left_children":[1,3,5,7,9,11,13,-1,-1,-1,-1,-1,-1,-1,-1],"loss_changes":[1.5415681E2,8.737297E0,2.416341E1,3.5868912E0,4.208581E0,8.239126E0,4.7844925E0,0E0,0E0,0E0,0E0,0E0,0E0,0E0,0E0],"parents":[2147483647,0,0,1,1,2,2,3,3,4,4,5,5,6,6],"right_children":[2,4,6,8,10,12,14,-1,-1,-1,-1,-1,-1,-1,-1],"split_conditions":[4.4615385E-1,3.2307693E-1,6.4615387E-1,6.8262863E-1,3.528421E-1,4.7789472E-1,7.846154E-1,-1.1566163E-2,-4.5762418E-4,-7.67797E-3,-9.895999E-4,-1.4158037E-3,7.687144E-3,3.7378704E-3,6.880871E-3],"split_indices":[0,0,0,3,1,1,0,0,0,0,0,0,0,0,0],"split_type":[0,0,0,0,0,0,0,0,0,0,0,0,0,0,0],"sum_hessian":[4.3491895E2,1.2544918E2,3.094698E2,8.439106E1,4.105812E1,9.6153885E1,2.1331589E2,8.129065E1,3.1004057E0,2.6157806E1,1.4900316E1,8.592447E1,1.0229416E1,8.500805E1,1.2830785E2],"tree_param":{"num_deleted":"0","num_feature":"6","num_nodes":"15","size_leaf_vector":"1"}},{"base_weights":[-7.896602E-4,-9.246748E-1,3.7482426E-1,-1.2372802E-2,-6.825408E-1,9.801286E-2,6.5202755E-1,-9.935802E-3,-4.284012E-3,-6.9408334E-4,5.6886994E-3,2.0570194E-3,6.843338E-3],"categories":[],"categories_nodes":[],"categories_segments":[],"categories_sizes":[],"default_left":[0,0,0,0,0,0,0,0,0,0,0,0,0],"id":46,"left_children":[1,3,5,-1,7,9,11,-1,-1,-1,-1,-1,-1],"loss_changes":[1.5143925E2,8.703148E0,2.3743126E1,0E0,5.369396E0,1.2369954E1,2.091919E0,0E0,0E0,0E0,0E0,0E0,0E0],"parents":[2147483647,0,0,1,1,2,2,4,4,5,5,6,6],"right_children":[2,4,6,-1,8,10,12,-1,-1,-1,-1,-1,-1],"split_conditions":[4.4615385E-1,2.1538462E-1,7.3846155E-1,-1.2372802E-2,1E0,5.9243697E-1,1.2947369E-1,-9.935802E-3,-4.284012E-3,-6.9408334E-4,5.6886994E-3,2.0570194E-3,6.843338E-3],"split_indices":[0,0,0,0,4,2,1,0,0,0,0,0,0],"split_type":[0,0,0,0,0,0,0,0,0,0,0,0,0],"sum_hessian":[4.3439526E2,1.2513734E2,3.0925793E2,5.282635E1,7.231099E1,1.5541562E2,1.5384232E2,3.1207176E1,4.1103813E1,1.1527886E2,4.0136757E1,1.0881172E1,1.4296115E2],"tree_param":{"num_deleted":"0","num_feature":"6","num_nodes":"13","size_leaf_vector":"1"}},{"base_weights":[-8.141459E-4,-9.178592E-1,3.7134662E-1,-1.229838E-2,-6.768251E-1,-3.8105667E-2,5.5552304E-1,-8.834574E-3,-3.089505E-3,-4.2328387E-3,1.779055E-3,4.874282E-3,9.107795E-3],"categories":[],"categories_nodes":[],"categories_segments":[],"categories_sizes":[],"default_left":[0,0,0,0,0,0,0,0,0,0,0,0,0],"id":47,"left_children":[1,3,5,-1,7,9,11,-1,-1,-1,-1,-1,-1],"loss_changes":[1.487688E2,8.63002E0,2.3404068E1,0E0,5.2922783E0,8.1573715E0,4.731369E0,0E0,0E0,0E0,0E0,0E0,0E0],"parents":[2147483647,0,0,1,1,2,2,4,4,5,5,6,6],"right_children":[2,4,6,-1,8,10,12,-1,-1,-1,-1,-1,-1],"split_conditions":[4.4615385E-1,2.1538462E-1,6.4615387E-1,-1.229838E-2,3.3894736E-1,2.5305262E-1,6.722689E-1,-8.834574E-3,-3.089505E-3,-4.2328387E-3,1.779055E-3,4.874282E-3,9.107795E-3],"split_indices":[0,0,0,0,1,1,2,0,0,0,0,0,0],"split_type":[0,0,0,0,0,0,0,0,0,0,0,0,0],"sum_hessian":[4.3390503E2,1.2483401E2,3.09071E2,5.262164E1,7.221237E1,9.6136955E1,2.1293407E2,4.5342384E1,2.6869987E1,3.4197845E1,6.1939106E1,1.8067474E2,3.2259308E1],"tree_param":{"num_deleted":"0","num_feature":"6","num_nodes":"13","size_leaf_vector":"1"}},{"base_weights":[-8.388702E-4,-9.111729E-1,3.679083E-1,-1.1387119E0,-5.872347E-1,9.525344E-2,6.414482E-1,-1.1951638E-2,-5.929961E-3,-6.5675313E-3,4.638234E-3,-7.013232E-4,5.6067356E-3,1.9868922E-3,6.7355465E-3],"categories":[],"categories_nodes":[],"categories_segments":[],"categories_sizes":[],"default_left":[0,0,0,0,0,0,0,0,0,0,0,0,0,0,0],"id":48,"left_children":[1,3,5,7,9,11,13,-1,-1,-1,-1,-1,-1,-1,-1],"loss_changes":[1.461527E2,8.583092E0,2.3049763E1,1.5298309E0,4.239588E0,1.2075064E1,2.062603E0,0E0,0E0,0E0,0E0,0E0,0E0,0E0,0E0],"parents":[2147483647,0,0,1,1,2,2,3,3,4,4,5,5,6,6],"right_children":[2,4,6,8,10,12,14,-1,-1,-1,-1,-1,-1,-1,-1],"split_conditions":[4.4615385E-1,2.769231E-1,7.3846155E-1,4.6306673E-1,6.134454E-1,5.9243697E-1,1.2947369E-1,-1.1951638E-2,-5.929961E-3,-6.5675313E-3,4.638234E-3,-7.013232E-4,5.6067356E-3,1.9868922E-3,6.7355465E-3],"split_indices":[0,0,0,3,2,2,1,0,0,0,0,0,0,0,0],"split_type":[0,0,0,0,0,0,0,0,0,0,0,0,0,0,0],"sum_hessian":[4.3339023E2,1.2451829E2,3.0887195E2,7.166471E1,5.2853573E1,1.5536142E2,1.5351053E2,6.3867783E1,7.796929E0,4.9926514E1,2.9270597E0,1.15255135E2,4.0106277E1,1.0865138E1,1.426454E2],"tree_param":{"num_deleted":"0","num_feature":"6","num_nodes":"15","size_leaf_vector":"1"}},{"base_weights":[-8.480568E-4,-9.044752E-1,3.6449903E-1,-1.2157785E-2,-6.650751E-1,-3.84496E-2,5.46063E-1,-9.753636E-3,-4.1217003E-3,-1.4094075E-3,7.5964658E-3,4.785878E-3,8.986403E-3],"categories":[],"categories_nodes":[],"categories_segments":[],"categories_sizes":[],"default_left":[0,0,0,0,0,0,0,0,0,0,0,0,0],"id":49,"left_children":[1,3,5,-1,7,9,11,-1,-1,-1,-1,-1,-1],"loss_changes":[1.4357266E2,8.522598E0,2.2677608E1,0E0,5.325382E0,8.052004E0,4.6503906E0,0E0,0E0,0E0,0E0,0E0,0E0],"parents":[2147483647,0,0,1,1,2,2,4,4,5,5,6,6],"right_children":[2,4,6,-1,8,10,12,-1,-1,-1,-1,-1,-1],"split_conditions":[4.4615385E-1,2.1538462E-1,6.4615387E-1,-1.2157785E-2,1E0,4.7789472E-1,6.722689E-1,-9.753636E-3,-4.1217003E-3,-1.4094075E-3,7.5964658E-3,4.785878E-3,8.986403E-3],"split_indices":[0,0,0,0,4,1,2,0,0,0,0,0,0],"split_type":[0,0,0,0,0,0,0,0,0,0,0,0,0],"sum_hessian":[4.3288876E2,1.2420703E2,3.0868173E2,5.222193E1,7.19851E1,9.612899E1,2.1255275E2,3.1042507E1,4.0942593E1,8.591875E1,1.0210243E1,1.8038803E2,3.216473E1],"tree_param":{"num_deleted":"0","num_feature":"6","num_nodes":"13","size_leaf_vector":"1"}}]},"name":"gbtree"},"learner_model_param":{"base_score":"[5E-1]","boost_from_average":"1","num_class":"0","num_feature":"6","num_target":"1"},"objective":{"name":"binary:logistic","reg_loss_param":{"scale_pos_weight":"1"}}},"version":[3,2,0]}